<?xml version="1.0"?>
<opencv_storage>
<cascade>
  <stageType>BOOST</stageType>
  <featureType>HAAR</featureType>
  <height>24</height>
  <width>24</width>
  <stageParams>
    <boostType>GAB</boostType>
    <minHitRate>9.9500000476837158e-01</minHitRate>
    <maxFalseAlarm>5.0000000000000000e-01</maxFalseAlarm>
    <weightTrimRate>9.4999998807907104e-01</weightTrimRate>
    <maxDepth>1</maxDepth>
    <maxWeakCount>100</maxWeakCount></stageParams>
  <featureParams>
    <maxCatCount>0</maxCatCount>
    <featSize>1</featSize>
    <mode>BASIC</mode></featureParams>
  <stageNum>4</stageNum>
  <stages>
    <!-- stage 0 -->
    <_>
      <maxWeakCount>2</maxWeakCount>
      <stageThreshold>-5.1161247491836548e-01</stageThreshold>
      <weakClassifiers>
        <_>
          <internalNodes>
            0 -1 8 -1.2137884646654129e-01</internalNodes>
          <leafValues>
            4.7222220897674561e-01 -9.8985803127288818e-01</leafValues></_>
        <_>
          <internalNodes>
            0 -1 9 4.0751338005065918e-02</internalNodes>
          <leafValues>
            -9.8383468389511108e-01 5.5599349737167358e-01</leafValues></_></weakClassifiers></_>
    <!-- stage 1 -->
    <_>
      <maxWeakCount>2</maxWeakCount>
      <stageThreshold>-3.8783180713653564e-01</stageThreshold>
      <weakClassifiers>
        <_>
          <internalNodes>
            0 -1 1 -5.6536495685577393e-01</internalNodes>
          <leafValues>
            7.1428573131561279e-01 -9.8003989458084106e-01</leafValues></_>
        <_>
          <internalNodes>
            0 -1 3 -6.0063034296035767e-02</internalNodes>
          <leafValues>
            5.9220814704895020e-01 -9.9739885330200195e-01</leafValues></_></weakClassifiers></_>
    <!-- stage 2 -->
    <_>
      <maxWeakCount>3</maxWeakCount>
      <stageThreshold>-1.5007096529006958e+00</stageThreshold>
      <weakClassifiers>
        <_>
          <internalNodes>
            0 -1 0 -5.9527403116226196e-01</internalNodes>
          <leafValues>
            3.6666667461395264e-01 -9.6593189239501953e-01</leafValues></_>
        <_>
          <internalNodes>
            0 -1 7 -9.9234148859977722e-02</internalNodes>
          <leafValues>
            5.1251959800720215e-01 -9.2674070596694946e-01</leafValues></_>
        <_>
          <internalNodes>
            0 -1 2 -9.4058483839035034e-02</internalNodes>
          <leafValues>
            3.9196291565895081e-01 -9.6784645318984985e-01</leafValues></_></weakClassifiers></_>
    <!-- stage 3 -->
    <_>
      <maxWeakCount>3</maxWeakCount>
      <stageThreshold>-1.4821816682815552e+00</stageThreshold>
      <weakClassifiers>
        <_>
          <internalNodes>
            0 -1 5 -5.2288964390754700e-02</internalNodes>
          <leafValues>
            3.0927835032343864e-02 -9.8335069417953491e-01</leafValues></_>
        <_>
          <internalNodes>
            0 -1 6 -5.8520287275314331e-01</internalNodes>
          <leafValues>
            5.9897345304489136e-01 -9.0687322616577148e-01</leafValues></_>
        <_>
          <internalNodes>
            0 -1 4 -1.1490739136934280e-01</internalNodes>
          <leafValues>
            4.0804219245910645e-01 -1.</leafValues></_></weakClassifiers></_></stages>
  <features>
    <_>
      <rects>
        <_>
          0 0 23 24 -1.</_>
        <_>
          0 8 23 8 3.</_></rects>
      <tilted>0</tilted></_>
    <_>
      <rects>
        <_>
          0 1 24 23 -1.</_>
        <_>
          8 1 8 23 3.</_></rects>
      <tilted>0</tilted></_>
    <_>
      <rects>
        <_>
          0 2 24 2 -1.</_>
        <_>
          8 2 8 2 3.</_></rects>
      <tilted>0</tilted></_>
    <_>
      <rects>
        <_>
          0 4 4 16 -1.</_>
        <_>
          2 4 2 16 2.</_></rects>
      <tilted>0</tilted></_>
    <_>
      <rects>
        <_>
          0 19 24 3 -1.</_>
        <_>
          8 19 8 3 3.</_></rects>
      <tilted>0</tilted></_>
    <_>
      <rects>
        <_>
          0 21 24 1 -1.</_>
        <_>
          8 21 8 1 3.</_></rects>
      <tilted>0</tilted></_>
    <_>
      <rects>
        <_>
          1 0 22 24 -1.</_>
        <_>
          1 8 22 8 3.</_></rects>
      <tilted>0</tilted></_>
    <_>
      <rects>
        <_>
          2 0 2 24 -1.</_>
        <_>
          2 8 2 8 3.</_></rects>
      <tilted>0</tilted></_>
    <_>
      <rects>
        <_>
          3 0 19 6 -1.</_>
        <_>
          3 3 19 3 2.</_></rects>
      <tilted>0</tilted></_>
    <_>
      <rects>
        <_>
          8 20 12 4 -1.</_>
        <_>
          8 22 12 2 2.</_></rects>
      <tilted>0</tilted></_></features></cascade>
</opencv_storage>
